,0,1,2,3,4,5,6,7,8,9,10,11,12,13,14,15,16,17,18,19,20,21,22,23,24,25,26,27,28,29,30,31,32,33,34,35,36,37,38,39,40,41,42,43,44,45,46,47,48,49,50,51,52,53,54,55,56,57,58,59,60,61,62,63,64,65,66,67,68,69,70,71,72,73,74,75,76,77,78,79,80,81,82,83,84,85,86,87,88,89,90,91,92,93,94,95,96,97,98,99,100,101,102,103,104,105,106,107,108,109,110,111,112,113,114,115,116,117,118,119,120,121,122,123,124,125,126,127,128,129,130,131,132,133,134,135,136,137,138,139,140,141,142,143,144,145,146,147,148,149,150,151,152,153,154,155,156,157,158,159,160,161,162,163,164,165,166,167,168,169,170,171,172,173,174,175,176,177,178,179,180,181,182,183,184,185,186,187,188,189,190,191,192,193,194,195,196,197,198,199,200,201,202,203,204,205,206,207,208,209,210,211,212,213,214,215,216,217,218,219,220,221,222,223,224,225,226,227,228,229,230,231,232,233,234,235,236,237,238,239,240,241,242,243,244,245,246,247,248,249,250,251,252,253,254,255,256,257,258,259,260,261,262,263,264,265,266,267,268,269,270,271,272,273,274,275,276,277,278,279,280,281,282,283,284,285,286,287,288,289,290,291,292,293,294,295,296,297,298,299,300,301,302,303,304,305,306,307,308,309,310,311,312,313,314,315,316,317,318,319
NP_150598.1,-0.06674651,0.024660358,0.1016946,0.26822045,-0.01243352,-0.23204589,0.031406704,0.06275806,-0.22368754,0.02091533,0.05810788,0.014709223,-0.1863696,0.05518535,0.0961558,-0.39577872,0.08201019,-0.052091695,-0.06230106,-0.054275867,-0.03660423,-0.12723203,-0.04616201,0.034965113,0.100441955,0.11294963,-0.016007842,0.015146607,0.18858781,0.27973446,0.048440773,-0.12079924,0.05192928,-0.2909877,-0.038744252,-0.42060223,0.34063157,0.18614976,-0.011128284,0.12783338,-0.1693231,0.06738905,0.3782148,-0.06644698,-0.18187004,-0.17153591,-0.33860144,0.23648354,0.20946434,-0.25737792,-0.0063439333,0.13734554,-0.12579007,0.14778739,-0.01895841,-0.19818857,0.03809754,-0.08858958,0.10331119,-0.16861698,-0.12084592,0.059116658,-3.4032419,-0.16548342,0.1531303,-0.13761178,0.036113508,0.35119468,-0.18921795,0.027554449,-0.44764128,0.05598653,-0.012258844,0.17664242,-0.060758293,-0.095105365,-0.036204014,-0.11609696,-0.005164327,0.024301974,0.3203861,0.24581115,0.004282181,0.28208628,-0.027209518,-0.18956433,0.28059694,-0.07552071,-0.09299068,0.19062479,-0.2254895,0.01818198,-0.1665975,0.13099213,-0.27551982,0.21225315,-0.16519699,-0.061645094,-0.22430748,0.04005718,0.012841927,0.13932541,-0.03887996,0.14735787,0.23927465,0.38655272,-0.28260502,0.0868582,-0.01807327,0.05642253,-0.143454,-0.05261092,0.18414342,0.03612687,-0.16592552,-0.1770067,-0.067169555,0.08019599,-0.2782528,0.14209504,0.058429062,0.16280402,0.0017179386,0.12633078,0.058151595,0.12639247,-0.26811022,-0.091521196,-0.1095543,0.1509021,-0.12125946,0.2904869,-0.020892559,-0.07138102,0.29655895,-0.017109787,-0.028280897,-0.049396224,-0.17926344,-0.114978984,0.06098383,-0.0655136,0.0065571815,-0.053975333,-0.17166288,0.021160468,-0.03540028,0.21335392,-0.13521932,0.26740348,-0.11739665,-0.15716375,-0.25809845,-0.2581245,0.10424962,0.0038679196,-0.063065186,0.22410765,-0.08158508,-0.11343033,-0.131643,-0.15554284,0.10290711,-0.27828115,0.013508663,0.01674263,-0.037668254,-0.20632622,-0.07007051,0.026671682,0.06635125,0.1578899,0.019066703,0.13871585,-0.08066995,-0.09720457,0.11849625,-0.1503624,0.107882634,-0.082897715,-0.19297068,-0.2577229,-0.21507235,-0.081291534,-0.038630903,0.2617512,-0.14127807,0.35660055,-0.082916774,-0.020648425,-0.16879089,0.3494035,0.5902523,0.06273745,0.4698554,0.01915541,-0.04096348,0.029269852,0.13759236,0.13364041,0.052110583,0.0064281677,0.13275473,0.11762981,-0.049609836,0.09056743,-0.10545293,0.2717097,0.04986012,0.0358929,-0.16825455,-0.18074846,-0.23998356,-0.13365382,0.035266507,0.049515672,-0.10277708,-0.23969874,-0.26513797,-0.16370945,-0.36368993,-0.071765564,0.25631222,0.16623937,0.2340418,0.15895452,0.0148179205,-0.25041965,0.060272552,-0.11591101,-0.21040377,0.04286098,0.12568565,0.002513638,0.22734043,0.052921638,-0.1684827,-0.0063237366,-0.06520906,-0.010796603,-0.0066902246,-0.14667958,0.038579848,0.014697532,0.038548417,-0.056534987,0.21495637,0.0138172675,0.23685867,0.08581379,-0.1355407,-0.1933326,0.037822124,-0.17063965,0.122831814,0.23876084,-0.07327257,-0.02914568,0.3135014,-0.1259301,0.036320493,-0.13990426,-0.09307163,-0.1225258,0.049242016,0.11388596,-0.20815855,-0.11732488,-0.109548755,-0.08339073,-0.012062953,0.19027361,0.07374982,0.1299859,0.061412964,-0.04598781,0.08571632,-0.14885136,0.036544137,0.039563086,0.102013335,-0.1299163,0.20438056,0.014723329,0.40166816,0.20127547,-0.18934675,0.028269386,-0.21005785,0.12209119,-0.016430559,-0.07191403,0.23627476,0.108020864,-0.10213842,-0.19042598,-0.04871336,0.03690834,-0.33226997,0.14134607,-0.036750108,-0.0041114,-0.009906663,0.23093733,0.1041496,-0.19970143,-0.13362935,0.027708126,-0.20029046,-0.089375675,-0.07318577,-0.07466337,0.1609517,0.34542328,-0.2032116,-0.28040025,-0.0032106568,0.19547695,-0.108049944,0.12326731
NP_001025186.1,-0.05888279,0.03172655,0.09447826,0.25875676,-0.014816801,-0.22227132,0.024146862,0.058978643,-0.21612954,0.014608269,0.029284768,0.013676072,-0.17152888,0.05969746,0.082157105,-0.39047435,0.08793429,-0.057604883,-0.05590113,-0.0620826,-0.033933926,-0.10931151,-0.047356352,0.045301024,0.078639396,0.13379876,-0.007327471,0.024809422,0.19302583,0.28043777,0.031348906,-0.12748873,0.06070691,-0.30262503,-0.025466448,-0.4151058,0.33408427,0.18581732,-0.011750616,0.13327713,-0.16777703,0.07095092,0.37261844,-0.050057843,-0.18833572,-0.18166885,-0.35071892,0.23067313,0.19903758,-0.23480617,-0.017319316,0.13893993,-0.117222875,0.15526454,-0.029265445,-0.20223778,0.036660958,-0.07096895,0.1054375,-0.16742404,-0.119022,0.045214243,-3.5400925,-0.16519348,0.15408733,-0.15325466,0.037833303,0.3414872,-0.18563467,0.025250949,-0.44683832,0.053088017,-0.0088583045,0.17046697,-0.06992108,-0.08671742,-0.04404347,-0.12341379,-0.016227966,0.027710043,0.32751578,0.25128308,-0.009108877,0.2671928,-0.037388153,-0.20015344,0.2803342,-0.083233684,-0.076998994,0.19335529,-0.23123069,0.027829358,-0.17101295,0.14135455,-0.28094584,0.21426442,-0.15856984,-0.049899776,-0.20069362,0.029085515,0.01465847,0.14973387,-0.030118307,0.14107127,0.24243261,0.39148733,-0.29128766,0.07548295,-0.016086113,0.045007233,-0.14845721,-0.057389066,0.19961338,0.012824688,-0.17000505,-0.17783676,-0.061687484,0.0812192,-0.27814382,0.1466896,0.050409093,0.16774979,0.008128558,0.13990925,0.07439956,0.109609626,-0.24600086,-0.082167566,-0.099928044,0.14286348,-0.10625557,0.27663833,-0.016464477,-0.0721512,0.27261734,-0.024440793,-0.020961905,-0.050091457,-0.1606843,-0.112385824,0.07929953,-0.053766254,0.0149637135,-0.051318586,-0.16764785,0.021225126,-0.028925288,0.20733452,-0.12624311,0.2663299,-0.11567572,-0.1611168,-0.2616524,-0.25452858,0.11772913,0.0025786182,-0.07034331,0.22793242,-0.086394064,-0.1147824,-0.12066428,-0.15201423,0.08581271,-0.26783812,0.004412889,0.007616371,-0.039892755,-0.20639373,-0.06758055,0.03613935,0.04941782,0.13879287,0.016305678,0.14743833,-0.064356506,-0.08544662,0.11251683,-0.13211104,0.09898657,-0.06956168,-0.17504552,-0.2655927,-0.20759837,-0.0822014,-0.040167894,0.26450863,-0.1364796,0.33112746,-0.08797325,-0.030360505,-0.17986107,0.33445275,0.5956445,0.06266326,0.43323067,0.028827187,-0.053687863,0.051438484,0.14633219,0.14623633,0.053508922,0.034128744,0.13742143,0.11095094,-0.05914448,0.10578466,-0.109565504,0.28033647,0.050412886,0.058724124,-0.1547314,-0.19148298,-0.24281368,-0.13022214,0.030669615,0.047861855,-0.11081791,-0.24776052,-0.25443602,-0.17841056,-0.3484024,-0.069153905,0.26457068,0.17104891,0.22256456,0.15476753,0.027403228,-0.2420602,0.058865726,-0.11296856,-0.19474305,0.041130394,0.11628057,0.0019909132,0.22354725,0.061672732,-0.15758792,0.014238555,-0.08365004,-0.010083918,-0.0061047324,-0.15279613,0.041015353,0.0050123483,0.039332,-0.048208684,0.22381233,0.01484555,0.23199426,0.07608243,-0.12514253,-0.19115119,0.038103044,-0.17625432,0.11181282,0.25408468,-0.07843811,-0.022285063,0.29376805,-0.10983794,0.04760719,-0.1175224,-0.095398314,-0.13151515,0.051467467,0.12176525,-0.19638196,-0.13239369,-0.090833046,-0.07929211,-0.0041218037,0.19065246,0.06847208,0.14150755,0.06444233,-0.049730014,0.07756835,-0.15082046,0.03199592,0.05448286,0.09170046,-0.14808296,0.20422684,0.025864221,0.41567782,0.20472905,-0.18660475,0.022753455,-0.22094354,0.13485268,-0.005602238,-0.06954446,0.23594558,0.10064493,-0.10239958,-0.18337707,-0.051824752,0.035912324,-0.34704283,0.14657328,-0.018963385,-0.022507459,-0.018755572,0.23105177,0.098759815,-0.21528378,-0.11732062,0.01803415,-0.1916599,-0.09184602,-0.0657248,-0.06373973,0.17413853,0.33899388,-0.1927265,-0.28419366,-0.011120148,0.18417817,-0.101827025,0.10994558
AAO38857.1,-0.11276848,0.030580409,0.1175773,0.23668146,-0.07302695,-0.2666086,0.034533035,0.044943213,-0.28243837,0.024239989,0.08267076,0.08533267,-0.18734771,0.08173071,0.0822532,-0.32870245,0.059737023,-0.04186347,-0.050899725,-0.023123147,-0.013663918,-0.15100345,-0.04565884,0.038477935,0.06873767,0.107743405,-0.044338897,0.052625854,0.19824374,0.32765076,0.08188802,0.017417958,0.08112575,-0.3352435,-0.07219063,-0.3849973,0.3131191,0.19007978,-0.0386564,0.17682378,-0.11509433,0.10213434,0.27431923,-0.13463825,-0.15617737,-0.15119626,-0.476526,0.24765381,0.13366333,-0.2948807,0.051049422,0.07798956,-0.1376898,0.13300082,-0.0649896,-0.20764604,-0.011712085,-0.061611474,0.12449693,-0.17816302,-0.13172859,0.08771664,-3.4363656,-0.15833245,0.13182685,-0.04476884,0.06801271,0.37832177,-0.1448301,0.041661922,-0.36492172,0.022755543,0.020019319,0.15671344,-0.047663763,-0.038953263,-0.054486115,-0.07530873,-0.011648229,0.11712389,0.31903264,0.29765362,0.047017884,0.18111973,-0.07828527,-0.087743886,0.19401066,-0.07131244,-0.036312386,0.17737174,-0.14892827,-0.11602713,-0.12950665,0.09404991,-0.26482,0.20597112,-0.2190641,-0.07700581,-0.19097795,0.024924548,0.10662742,0.144181,-0.027638055,0.15104482,0.18001345,0.3912435,-0.25473177,0.113611996,-0.07316457,0.088679045,-0.12960358,-0.009837666,0.17135449,0.02549792,-0.12292629,-0.16374475,0.032491393,0.11445762,-0.27558753,0.19963723,0.046274453,0.18626261,-0.012442283,0.02265014,0.018244777,0.090774,-0.22632025,-0.033718996,-0.12102184,0.11659255,-0.16971695,0.3094923,-0.04259899,-0.046290528,0.26347587,0.030080711,-0.067238584,-0.08533253,-0.2593572,-0.15380508,-0.0010302963,-0.057938688,-0.047022875,-0.033097286,-0.22104324,0.009022522,-0.026055926,0.21963255,-0.08048217,0.24976227,-0.08427465,-0.11220907,-0.15117507,-0.17284906,0.013571419,0.06764602,-0.06766396,0.20602229,-0.10536476,-0.07920433,-0.120609924,-0.17499751,0.116105124,-0.18789253,0.050043784,-0.016529603,0.066398226,-0.20691998,-0.082815215,-0.0153321475,0.015151285,0.19654322,0.020906635,0.049744774,-0.13663812,-0.080779076,0.09092595,-0.16359976,0.036385443,-0.1390374,-0.17433399,-0.26231745,-0.23113757,0.00886586,-0.032682627,0.19717358,-0.1486718,0.30286357,-0.122031875,0.04919614,-0.2313157,0.3825804,0.57057256,0.04229937,0.44926545,0.110782124,-0.08349756,0.0875266,0.054197446,0.14826846,0.054062784,0.11333425,0.07237222,0.115428455,-0.06625171,0.1049484,-0.060263753,0.102005385,0.037009083,-0.0039603272,-0.1326445,-0.15671745,-0.2612585,-0.09732066,-0.0017188187,0.019762805,-0.10654049,-0.167824,-0.22681595,-0.12099482,-0.35337707,-0.121366255,0.26177964,0.15827654,0.20666021,0.12556963,-0.03961525,-0.1670969,0.029313548,-0.07487555,-0.13242227,0.062432665,0.12453886,0.00958794,0.24715722,0.0848774,-0.13831365,-0.03597144,0.015335068,0.00026710128,0.026555572,-0.1127937,0.07184305,-0.059702188,0.012039791,-0.061738122,0.255446,0.05654245,0.12821677,0.054851793,-0.10616109,-0.17865111,0.0023003158,-0.15978186,0.035579916,0.20342025,-0.1460981,-0.007691265,0.4157775,-0.05697442,-0.07079194,-0.17212686,-0.15817076,-0.12347066,0.05714311,0.10435481,-0.17475405,-0.16488452,-0.1273118,-0.0122992685,-0.059740778,0.21188568,0.044232484,0.097933605,0.046039384,-0.0476343,0.14704575,-0.106165126,0.11314532,0.025883324,0.089159906,-0.10495711,0.27670154,0.08208282,0.31926313,0.17061739,-0.24461062,0.054494675,-0.2576134,0.10021024,-0.05729893,-0.0935724,0.12658863,0.13047923,-0.0741858,-0.21926813,-0.041283537,-0.012006872,-0.39067492,0.21370651,-0.04543016,0.053615566,-0.022776147,0.31042358,0.035093334,-0.18502359,-0.14381158,0.07589421,-0.18848541,-0.04593186,-0.014910581,-0.07622104,0.15936382,0.35446173,-0.24029702,-0.2370669,-0.089308016,0.16844617,-0.12787995,0.14814554
BAG14330.1,-0.041834228,0.11590993,0.2429691,0.38435245,-0.20554811,-0.2614784,0.04926743,-0.021625703,-0.28138417,0.010786292,-0.07680672,0.026076002,-0.22465827,0.07515692,0.038790558,-0.32414475,0.013212782,0.00594739,0.030051654,0.013098099,-0.01817869,-0.19035514,-0.05897232,0.07525214,0.073995195,0.09094825,-0.19384167,-0.022381332,0.15168063,0.3870139,-0.009627305,0.1053426,0.13441244,-0.43682063,-0.0056677354,-0.46441457,0.15781558,0.13888979,-0.021128425,0.30251402,-0.11568464,0.12169309,0.24215648,-0.19280656,-0.18034108,-0.15192941,-0.27686822,0.28377378,0.18006024,-0.36239403,0.025578827,0.118897595,-0.11128491,0.11893111,-0.21540801,-0.30733222,-0.023160476,-0.0133927995,0.11001617,-0.15944785,-0.1896933,0.09126813,-3.1460464,-0.15063712,0.16880037,0.0029443156,0.075896606,0.35744184,-0.1879298,0.018103398,-0.42641503,0.01723252,0.09535985,0.23308694,0.0012687381,-0.040061135,-0.045350756,-0.069305934,-0.012832698,0.11386525,0.29022485,0.18543202,0.062036403,0.19871701,0.0021083786,-0.13907382,0.22006221,-0.067002214,0.02850758,0.10530823,-0.22596778,-0.12545843,-0.16563094,0.057237286,-0.33104756,0.2405656,-0.24861781,-0.06150341,-0.34960657,0.06892422,0.042243045,0.14801516,-0.014652992,0.15768188,0.33311337,0.45596087,-0.26928648,0.07744361,-0.14132059,0.11144553,-0.17020437,-0.08689335,0.16827394,-0.00951627,-0.24646798,-0.10505436,-0.02350418,-0.044275478,-0.3209231,0.107166596,0.04539129,0.20715451,-0.16453028,-0.09133169,0.13821875,0.16581137,-0.23715666,0.090658754,-0.07339802,0.04392745,-0.13608755,0.3469088,0.056212835,-0.029223403,0.31827587,-0.006899709,0.07471097,-0.073708184,-0.2985629,-0.23586573,0.13855663,-0.1163869,-0.0005913864,-0.08985576,-0.19164112,-0.058427088,0.04106139,0.2178853,-0.069044955,0.26180035,-0.10464028,-0.20364441,-0.3013164,-0.18156238,0.15868871,-0.06332732,-0.1208122,0.19717751,-0.12642395,-0.0654289,-0.06993674,-0.07868009,0.18988782,-0.13781275,-0.075423405,0.055913206,-0.03837549,-0.24551482,0.008458168,-0.02100967,-0.1328178,0.28752577,0.0779589,0.055467017,-0.29849622,-0.035079796,0.15261872,-0.19194098,-0.041120548,-0.03497801,-0.31811166,-0.343457,-0.21573971,-0.06666702,0.007530997,0.25740597,-0.014476397,0.361929,-0.10245222,0.07346799,-0.14343451,0.45220003,0.72139865,-0.07605018,0.5267015,0.07497541,-0.105479464,0.04587491,0.050664388,0.15213436,0.08886474,0.079003476,0.09022344,0.09997866,0.044332575,0.053901713,-0.058865506,-0.0017756448,0.013605328,0.030452583,-0.16748205,-0.23030391,-0.19308467,-0.07688962,-0.023066543,-0.033445034,-0.14226893,-0.1606458,-0.21839638,-0.10542418,-0.34346274,-0.06147652,0.32801276,0.1980019,0.31028554,0.13287023,-0.010027078,-0.30760762,0.05660503,-0.15019001,-0.0632097,0.11322899,0.15986557,-0.12270952,0.30898583,0.055456612,-0.17526966,-0.08159453,0.04277177,-0.028095212,0.08218959,-0.11554258,-0.014671118,-0.037467547,-0.0038829567,-0.12499951,0.2604656,0.0037074056,0.24871968,0.014247669,-0.095694,-0.17967686,-0.016015988,-0.14241633,0.05580359,0.19733098,-0.14997074,0.06128517,0.52043784,-0.11643657,-0.08005164,-0.1951908,-0.11686407,-0.12808576,0.021657877,0.05404358,-0.16233104,-0.3337239,-0.07138976,-0.10757998,-0.11341232,0.31062675,-0.00021773257,0.046630505,0.11357471,0.027492767,0.18228137,-0.11389405,0.14667703,0.120524086,0.0860724,-0.106243506,0.26807082,0.060699526,0.45061353,0.29793876,-0.1725,0.071367286,-0.24720299,0.15628543,-0.04337684,-0.07425253,0.22911681,0.22926381,-0.044203844,-0.09484378,0.025351757,-0.058110375,-0.34980372,0.14185776,-0.0050712004,-0.00021900925,-0.08475645,0.33830553,0.04630008,-0.23816387,-0.12320899,0.07554333,-0.27945063,-0.1604989,-0.06441899,-0.03951873,0.10764691,0.34510314,-0.25051817,-0.3558508,-0.110217474,0.053415567,-0.07243059,0.22587472
BAH04514.1,-0.066070125,0.0309961,0.19178405,0.35054868,-0.12607871,-0.26794323,0.14225836,0.057967454,-0.16030312,-0.012533106,0.0010738154,0.025191464,-0.20691496,0.0676894,0.07462386,-0.3561024,0.024009787,-0.07545879,0.04476338,0.015907813,0.10762825,-0.16335651,0.02655909,0.08956136,0.18612155,0.07805143,-0.12635076,-0.03891879,0.20440143,0.32009864,0.0011483736,0.04306455,0.07046787,-0.37966722,-0.06609019,-0.39368403,0.28820688,0.11638633,-0.017346505,0.25886938,-0.18140048,0.09409974,0.27649593,-0.21597733,-0.17057669,-0.1543442,-0.29507086,0.3174179,0.22505352,-0.3878204,0.039181057,0.14950325,-0.12828313,0.13492724,-0.15957826,-0.28751707,-0.009862327,-0.018867292,0.0327386,-0.12901986,-0.12976958,0.08520556,-3.2289448,-0.16667111,0.20569178,0.058870073,0.07526282,0.34517297,-0.25340465,0.050848193,-0.48517495,-0.03286962,0.038889036,0.22227538,0.019033946,-0.09818054,-0.023713633,-0.059447158,-0.016912576,0.08678087,0.25349486,0.27298957,0.10173698,0.27910224,0.040467646,-0.14908352,0.22821958,-0.08373646,-0.00957854,0.12891944,-0.23340255,-0.083865546,-0.20537773,0.099010445,-0.35906428,0.27187523,-0.25276121,-0.1252316,-0.33417398,0.06168003,0.031990968,0.13305178,0.010294949,0.13357314,0.2793944,0.3801878,-0.2560942,0.05590271,-0.10655748,0.1397687,-0.16484937,-0.08948186,0.2066179,0.026386099,-0.25266713,-0.07254182,-0.035859328,-0.008995719,-0.28682238,0.09833604,0.04517373,0.19979437,-0.12801528,-0.15053427,0.10794397,0.19139904,-0.20105451,0.0046484605,-0.0824904,0.03297143,-0.10056599,0.28258437,0.10302249,0.029150693,0.36630595,0.007281253,0.061306056,-0.04851662,-0.262396,-0.23052551,0.15567121,-0.17440811,-0.027238155,-0.14252561,-0.24327639,-0.027272524,-0.0011685236,0.22023855,-0.038125474,0.24897619,-0.16102485,-0.1978658,-0.28625107,-0.25473484,0.096536085,-0.049557462,-0.06408215,0.21483693,-0.13093801,-0.0805508,-0.057823118,-0.09927154,0.17043366,-0.15113644,-0.025382502,-0.003257596,-0.045906685,-0.25650075,-0.033948533,0.0042797304,-0.10798345,0.23792747,0.049652502,0.0033495869,-0.20364787,-0.06440497,0.12956011,-0.19325224,0.005869744,-0.094348565,-0.30734596,-0.30894682,-0.19652855,-0.0788169,0.025387337,0.21790048,-0.08794716,0.38549888,-0.07723761,0.12955214,-0.11100323,0.48850203,0.6130247,-0.0077591236,0.50805765,0.040392738,-0.047399588,-0.02926243,0.028218715,0.123051316,0.096204154,0.03180778,0.16805449,0.113628946,0.030254437,0.0048271804,-0.06012956,-0.038403627,-0.02469364,0.03361346,-0.17925939,-0.18385668,-0.22931097,-0.12989205,-0.043779843,-0.033736423,-0.09562971,-0.16365793,-0.268066,-0.093430504,-0.40230912,-0.047262207,0.29744112,0.18896616,0.2618091,0.10706148,-0.0319659,-0.2784529,0.05853771,-0.13745445,-0.15723641,0.06663292,0.11292715,-0.08957712,0.2578858,0.101476,-0.24886593,0.008033389,0.032465577,-0.013599758,-0.013296533,-0.08848947,0.0021676754,-0.03927038,0.022318669,-0.024267713,0.32104623,0.03653701,0.22223768,0.06526117,-0.058328614,-0.21331316,-0.005199414,-0.1424219,0.19184114,0.21773992,-0.13655254,0.04622503,0.4839759,-0.072592415,-0.06992867,-0.14380008,-0.14667195,-0.09388684,0.05368103,0.09121841,-0.17702904,-0.2974481,-0.08887187,-0.08808539,-0.15115644,0.29738706,0.0323066,0.024031254,0.05092063,-0.020283597,0.1523841,-0.16572283,0.10777735,0.07525826,0.1295236,-0.17223656,0.26471254,0.073384516,0.4295015,0.3229738,-0.1703961,-0.0052088816,-0.15054947,0.13975427,-0.03747992,-0.08858088,0.2481182,0.19752032,-0.0500234,-0.12685384,-0.023114879,-0.0041485126,-0.30018514,0.1231152,-0.044746317,-0.019717725,-0.06264035,0.31320128,0.031146308,-0.22574392,-0.18449079,0.1353202,-0.22497879,-0.14068927,-0.0150503665,-0.052461676,0.1923403,0.3300044,-0.1920352,-0.32234114,-0.077745736,0.08302285,-0.13708097,0.1985436
BAH04515.1,-0.06753278,0.07183524,0.20824361,0.35242522,-0.16908291,-0.24274802,0.099304445,0.0048840498,-0.2144734,-0.003271519,-0.034187395,0.058021534,-0.18010637,0.056789268,0.04858439,-0.31324518,0.033693306,-0.0015893906,0.03410914,-0.025431134,0.044011656,-0.16624013,-0.02029633,0.08974796,0.13197306,0.07736087,-0.15886407,0.00050711946,0.1862644,0.32081273,0.017840127,0.10713552,0.10651898,-0.41225109,-0.055055946,-0.44034967,0.23324965,0.09764418,0.020172514,0.2688812,-0.15061785,0.13899267,0.24184857,-0.20891294,-0.20386933,-0.15308748,-0.3696166,0.31281492,0.18142445,-0.4044102,0.02723006,0.121078044,-0.09157662,0.1414792,-0.19425742,-0.2811656,-0.010775506,-0.0049534743,0.03821773,-0.1681321,-0.15163438,0.08670524,-3.3614802,-0.156408,0.16500375,0.06522563,0.08251183,0.32547918,-0.20697224,0.037166134,-0.432292,-0.017265214,0.06015474,0.21645288,-0.052398257,-0.07096047,-0.044682145,-0.023769634,-0.02182095,0.071806945,0.23557062,0.24949029,0.08356633,0.22805463,0.010031169,-0.08392467,0.22909038,-0.038707715,0.011647852,0.13213974,-0.21289541,-0.10455992,-0.1595612,0.13091186,-0.36032373,0.255499,-0.2740968,-0.079755805,-0.31553227,0.06606461,0.06000101,0.16465992,0.008841821,0.12777479,0.3070914,0.3910321,-0.25720727,0.08434916,-0.0659625,0.13676432,-0.14456913,-0.12493416,0.19801067,0.014549312,-0.26272416,-0.06815626,-0.03753733,-0.016238587,-0.29324204,0.085150436,0.011021055,0.17966013,-0.16788247,-0.15487874,0.14945903,0.18272102,-0.18326595,0.038101677,-0.09091922,0.025315601,-0.13996616,0.28248322,0.0908139,0.00051784515,0.32919413,-0.019299993,0.12176661,-0.06072971,-0.2932119,-0.290646,0.12922092,-0.152763,-0.0074592587,-0.15997681,-0.24019629,-0.0077634505,0.053868216,0.21132573,-0.066546485,0.23725541,-0.12448041,-0.17223786,-0.28109547,-0.25733697,0.12017147,-0.03045972,-0.09450531,0.21159549,-0.15402834,-0.081013314,-0.06675711,-0.10745092,0.17413688,-0.12294425,-0.043664906,-0.015612762,-0.039513055,-0.24090208,-0.029349346,0.005503065,-0.13390991,0.3139885,0.086923555,0.056965906,-0.23897299,-0.030883916,0.106696606,-0.19608788,-0.069933265,-0.081789024,-0.29858565,-0.34059,-0.18075562,-0.050653674,0.0075184978,0.24577096,-0.037303597,0.38272873,-0.09425097,0.15153001,-0.13965683,0.47653472,0.6840687,-0.07368052,0.45054957,0.1006136,-0.06858673,-0.024766957,0.02980172,0.13639101,0.084061,0.052745476,0.13133611,0.1304727,0.054281093,0.048846148,-0.025848126,-0.09169628,0.030137422,0.027029796,-0.13066618,-0.20919149,-0.2174103,-0.11211741,-0.03386354,-0.037942883,-0.13343783,-0.11139863,-0.26423487,-0.13073574,-0.38768753,-0.051570993,0.31039008,0.15343674,0.25876966,0.1688251,-0.00891838,-0.2625495,0.042815838,-0.13576116,-0.09249931,0.090501115,0.092866324,-0.08311657,0.26315394,0.12197141,-0.18289536,-0.041413598,0.031656653,-0.0013162274,-0.0033249792,-0.08065582,-0.017067645,-0.070928946,0.03373565,-0.09426416,0.2706441,0.057159796,0.24326031,0.054101903,-0.038190734,-0.2308504,-0.03885833,-0.11751612,0.14784737,0.19072694,-0.14294231,0.040806204,0.5006666,-0.103363015,-0.0668829,-0.15939409,-0.122310646,-0.0897739,0.0258751,0.10392067,-0.1562163,-0.31845307,-0.08313878,-0.106051095,-0.11658508,0.29032207,-0.0147728035,-0.008614223,0.080290444,0.0073964754,0.1865425,-0.12903792,0.111185,0.10595019,0.09635584,-0.14617981,0.27698553,0.0705355,0.4063267,0.33914354,-0.1642955,0.034231246,-0.16434269,0.16891553,-0.044042993,-0.10137916,0.25720736,0.20721015,-0.049107824,-0.14747068,0.021030743,-0.022042714,-0.31367764,0.14278318,-0.024447128,-0.025043366,-0.035941232,0.3287473,0.02820633,-0.24042068,-0.15186961,0.0989093,-0.22081722,-0.17817613,6.898613e-05,-0.045256563,0.17136073,0.3188518,-0.18802767,-0.29895633,-0.0606855,0.06458614,-0.10911046,0.22720003
BAH04516.1,-0.017352784,0.08535048,0.2534446,0.37173507,-0.16561554,-0.27876493,0.037467197,-0.035555635,-0.2256369,0.024276983,-0.023547463,0.032306667,-0.18901552,0.06698281,0.046531327,-0.3306401,0.004224708,-0.016092462,0.019668652,-0.008803633,0.012650482,-0.15414193,-0.008839838,0.06468993,0.11868593,0.09309268,-0.16062564,-0.011980524,0.13492325,0.36762315,-0.019806687,0.08407523,0.08663807,-0.3744347,-0.019034054,-0.45046514,0.2716495,0.10610908,-0.060660798,0.30294937,-0.18663065,0.094207786,0.23962204,-0.18207821,-0.21241412,-0.14905506,-0.3637058,0.30652443,0.18004534,-0.37342963,0.04661037,0.11099929,-0.14054666,0.13775134,-0.22996555,-0.28402397,0.021003531,-0.0004876678,0.030701594,-0.15317672,-0.20082685,0.08377214,-3.1820884,-0.1880895,0.16659355,0.010897579,0.03736576,0.37515336,-0.16288637,0.0071522994,-0.44565725,0.025526632,0.09293082,0.2385693,0.0014543786,-0.07392405,-0.02366617,-0.02198169,-0.012415518,0.10246147,0.28344244,0.27762893,0.11286887,0.21774013,0.029759329,-0.112171374,0.20986795,-0.07234067,0.056511022,0.120437585,-0.22478269,-0.10111248,-0.14960515,0.06015474,-0.31375605,0.2548486,-0.24430099,-0.09157466,-0.36221057,0.08114622,0.06687485,0.15102471,-0.022140622,0.11622425,0.31082967,0.386799,-0.2813456,0.06537605,-0.12703314,0.13175313,-0.18869679,-0.053596538,0.14116374,0.011517665,-0.26345146,-0.09067809,-0.023411905,-0.014945006,-0.30856517,0.0818666,0.048855446,0.17129411,-0.15833767,-0.103702545,0.13525327,0.1892979,-0.22416626,0.10004286,-0.09032152,0.047508877,-0.07833101,0.31140366,0.058717683,-0.031200247,0.33423036,0.00071067835,0.04284387,-0.00464707,-0.31973866,-0.23501551,0.15456505,-0.121448666,0.025948446,-0.14553481,-0.18545261,-0.04784605,0.06776637,0.23880485,-0.08852842,0.2516196,-0.16024525,-0.20297092,-0.3019792,-0.18204203,0.12398764,-0.036828972,-0.119796835,0.1958912,-0.13374579,-0.062467895,-0.08583812,-0.063972354,0.17246649,-0.1818056,-0.05373942,0.053061508,-0.027357817,-0.24147423,0.015474203,-0.012491671,-0.12596169,0.23586243,0.06030272,0.05996369,-0.2501761,-0.06593965,0.08861831,-0.18289664,-0.013984213,-0.058577135,-0.3192375,-0.3224938,-0.26955622,-0.09805245,0.0117881885,0.2571977,-0.057251412,0.3929796,-0.116638206,0.06901335,-0.1571706,0.49698806,0.63639444,-0.047712345,0.5149365,0.08103508,-0.05612469,0.020822097,0.07901216,0.13771413,0.085072406,0.069579884,0.13251191,0.13876116,0.03312687,0.07815072,-0.043064326,-0.03913056,-0.015554082,-0.059997033,-0.17339116,-0.23539789,-0.23523237,-0.05718481,-0.035827182,-0.039559204,-0.13613497,-0.1539265,-0.29947698,-0.08242488,-0.3680267,-0.050370093,0.35038745,0.18323636,0.29315755,0.14314725,-0.01166183,-0.2875454,0.08364106,-0.14445676,-0.09401963,0.06448051,0.16393033,-0.12454877,0.3029817,0.06679323,-0.19152269,-0.08396587,0.057850454,-0.028461458,0.05972301,-0.092996605,-0.043123063,-0.022347191,0.013829641,-0.11367132,0.31215054,0.025868397,0.22438678,0.024823662,-0.041817147,-0.184244,-0.021255156,-0.15169063,0.10809174,0.19466236,-0.14939572,0.08037855,0.5094883,-0.09517118,-0.07832078,-0.15354924,-0.10834418,-0.12988769,0.027470764,0.07102952,-0.17838752,-0.29041716,-0.065570176,-0.12752691,-0.131034,0.291087,0.010277495,0.016546454,0.100006916,0.03289765,0.19973624,-0.14726697,0.14747576,0.10496842,0.11213853,-0.14444554,0.26103687,0.088498965,0.4506385,0.3062832,-0.17672814,0.0093663605,-0.20950824,0.21503583,-0.059281882,-0.044258893,0.2193513,0.2674092,-0.034062058,-0.07085785,-0.026271917,-0.049640812,-0.32728884,0.11470331,-0.0030403656,-0.0009970665,-0.05557329,0.32580164,0.054906808,-0.2338917,-0.15908189,0.07759128,-0.27804163,-0.13905613,-0.05143351,-0.06168878,0.14462641,0.34482267,-0.21774548,-0.37621886,-0.12794437,0.07879236,-0.13561341,0.21001805
BAA31723.1,-0.027119383,0.103055656,0.22727288,0.36997312,-0.158481,-0.2331361,0.015937492,-0.032938357,-0.20913564,-0.012618688,-0.029988635,0.003785536,-0.16035718,0.06773356,0.04892156,-0.324102,-0.016847193,-0.0034277143,-0.023383088,0.012597525,-0.0069960365,-0.13530113,-0.035790503,0.101035275,0.11547395,0.09452264,-0.13506316,-0.02309143,0.110139206,0.34963164,-0.03966767,0.0192015,0.07854057,-0.3665077,-0.029871037,-0.47056177,0.2523191,0.11345065,-0.02429187,0.28812492,-0.18600218,0.0809073,0.27624282,-0.21333922,-0.17625266,-0.14253059,-0.3051786,0.28255546,0.18729936,-0.3471806,0.041643225,0.105743974,-0.12001046,0.09409865,-0.20751098,-0.28927594,0.016993616,-0.031426225,0.061864324,-0.11236256,-0.17912942,0.061536044,-3.2160459,-0.21263885,0.17192352,-0.013724083,0.035033688,0.35018998,-0.14718288,-0.003583055,-0.461355,0.030444179,0.06953408,0.22655356,-0.003310055,-0.09609901,-0.051196925,-0.031517126,-0.014042367,0.09948306,0.29514724,0.211392,0.06766406,0.25767955,0.0071682306,-0.13258949,0.22120374,-0.06771183,0.024099914,0.14972399,-0.23947006,-0.05767158,-0.16064063,0.05904951,-0.32688364,0.2660179,-0.23481388,-0.055838395,-0.38513252,0.08005764,0.02925429,0.13991383,-0.026335083,0.12935588,0.3185273,0.4037181,-0.3005838,0.07766629,-0.11036807,0.111423865,-0.16196327,-0.05898176,0.15913704,0.0039813397,-0.26968774,-0.09337468,-0.037469193,-0.0005633202,-0.30763942,0.08192773,0.060375474,0.18098715,-0.15427978,-0.03915194,0.13228329,0.1533783,-0.23274575,0.100559324,-0.0846452,0.06719939,-0.07013933,0.3076894,0.03615648,-0.048876822,0.34519687,-0.016823897,0.017962081,-0.001268251,-0.29662937,-0.20429333,0.11343223,-0.12425631,0.007066768,-0.1230041,-0.21201825,-0.06755611,0.05066072,0.2277123,-0.10252254,0.24600115,-0.14444473,-0.2364868,-0.32795265,-0.17887136,0.15537046,-0.06864332,-0.10136967,0.22920854,-0.1423119,-0.038934436,-0.08680777,-0.0770954,0.16938226,-0.17473316,-0.0626844,0.048176847,-0.03210265,-0.24886127,0.03656466,-0.021324508,-0.10244728,0.2348269,0.042573523,0.0618235,-0.20257162,-0.07924357,0.10533891,-0.17638762,0.03527319,-0.016142586,-0.29648763,-0.31545216,-0.23091958,-0.07770344,0.04947611,0.25588208,-0.028535407,0.4010384,-0.08906669,0.043436784,-0.17889056,0.47135922,0.6683085,-0.03998415,0.50900954,0.08675074,-0.09980762,0.037742432,0.07033597,0.09543943,0.046923228,0.08273881,0.1578649,0.15041041,0.025261799,0.09263108,-0.05319214,0.06939848,-0.051809125,-0.0466388,-0.17670362,-0.23822609,-0.21771124,-0.06142629,-0.047020745,-0.03969928,-0.14222826,-0.162204,-0.2630961,-0.07742858,-0.34552884,-0.068501286,0.31577814,0.23284286,0.30396664,0.15115263,-0.010354734,-0.27084407,0.091040924,-0.14046547,-0.08197075,0.0891021,0.12990825,-0.16141014,0.31322384,0.058679428,-0.17749077,-0.045453075,0.051215995,-0.023035664,0.088888474,-0.10110963,-0.014240265,-0.021600915,0.052118693,-0.13898994,0.2774968,0.023675883,0.22532809,0.045874357,-0.046069093,-0.14184658,-0.028629677,-0.15572877,0.10660559,0.2172517,-0.13089173,0.062313527,0.46523818,-0.067642406,-0.08856942,-0.14319514,-0.08475611,-0.1438497,0.014516665,0.07012963,-0.161542,-0.2593902,-0.052196603,-0.13736713,-0.13706747,0.2829809,0.008481519,0.03239349,0.102342285,0.029403642,0.1532812,-0.1328264,0.12623216,0.09508759,0.11483418,-0.13453202,0.23680088,0.08136603,0.48852438,0.32334667,-0.20504759,0.0021166184,-0.23361263,0.18091743,-0.029105531,-0.033516493,0.24738003,0.2421021,-0.06084994,-0.096444495,-0.031334024,-0.0407858,-0.32174066,0.1228582,0.017364392,-0.03879587,-0.051533826,0.32212108,0.07523262,-0.28837955,-0.13957232,0.039170373,-0.25333485,-0.114835635,-0.11190434,-0.020893335,0.14588787,0.32094416,-0.24732116,-0.40886214,-0.12051074,0.11211187,-0.14823899,0.20692362
ACB05672.1,-0.052372057,0.083744645,0.21723911,0.3597042,-0.090360746,-0.1352231,0.06984084,-0.026303574,-0.0645868,0.009053307,-0.07469574,7.668989e-05,-0.17652382,0.02613786,0.049581748,-0.29858717,-0.055640884,-0.057247553,0.038085487,0.0450437,0.08213411,-0.14357235,-0.09037113,0.03475921,0.081842676,0.053546496,-0.20889902,-0.03562658,0.07870074,0.40667957,-0.120419756,0.008461401,0.113341935,-0.3141251,0.04444303,-0.31754607,0.09662279,0.10239293,-0.07666631,0.23591582,-0.083326764,0.04760113,0.22481744,-0.20137188,-0.055795074,-0.13246526,-0.25857553,0.2250433,0.1289052,-0.3792705,0.042452622,0.21762644,-0.017871505,0.059509132,-0.2141354,-0.18910156,0.06654218,-0.030486446,0.25495216,-0.043058705,-0.16614379,0.07251554,-3.0966594,-0.18995449,0.20945144,-0.0037666697,0.043562915,0.33919364,-0.13521811,-0.002108442,-0.34795263,0.022148995,0.06908943,0.18487264,-0.03141457,-0.08570202,0.0056423056,-0.040324293,-0.031386595,0.048285306,0.22137152,0.19336684,0.054923058,0.15100972,0.039705966,-0.11338687,0.18647133,-0.02559581,-0.0025332894,0.1573313,-0.29876342,-0.022568773,-0.15659197,0.0047533214,-0.22906998,0.23695298,-0.18129237,-0.14280805,-0.24858217,0.11518695,0.051362336,0.09906953,-0.01771248,0.10687864,0.20024581,0.26741314,-0.2368102,0.13385333,-0.14003849,0.0677868,-0.18020983,-0.0422553,0.23087387,0.0289062,-0.21045227,-0.08463113,-0.017626284,0.14905335,-0.24264118,0.09861247,0.057060454,0.25889835,-0.10730766,0.011708455,0.15097897,0.12692799,-0.25108257,-0.015199585,-0.12320415,-0.014957578,-0.052885454,0.29666805,0.016715998,-0.108626544,0.3601119,-0.053102184,0.09553327,-0.021872995,-0.20773466,-0.11913975,0.23162945,-0.1269013,0.015000259,-0.11998485,-0.20774697,-0.10794604,0.010388745,0.27775204,-0.014052278,0.2964849,-0.078346536,-0.1561053,-0.3315297,-0.1476926,0.12893346,-0.14271225,-0.10609865,0.2313505,-0.07708071,-0.052657597,-0.027663786,-0.10403734,0.14254431,-0.19946966,-0.06115126,0.121779,0.006895159,-0.18039273,0.003612876,0.025521223,-0.083310254,0.14718553,0.03902406,0.05562022,-0.24844909,-0.01247366,0.104603894,-0.102796115,0.031854033,0.0017233369,-0.28800568,-0.3052157,-0.25688758,-0.04110304,0.012344571,0.1780984,-0.028470859,0.40552267,-0.09491759,0.12059649,-0.14215931,0.43888602,0.39488003,-0.092669174,0.48210496,0.01234264,-0.13721983,-0.034275915,0.025319371,0.1405267,0.08696175,0.012302084,-0.0023930583,0.06858839,0.019692872,-0.00038844984,-0.09960944,0.00034411252,-0.056435138,-0.04338789,-0.19689086,-0.2016093,-0.13493441,-0.051770564,-0.033321314,-0.060595784,-0.16192031,-0.24245116,-0.24927422,-0.027319048,-0.3027223,-0.033937607,0.29502103,0.17351714,0.3433965,0.07652639,0.02191622,-0.3334801,-0.0020238198,-0.22172914,-0.08461257,0.09380568,0.15527733,-0.14849281,0.21064946,-0.039040294,-0.2144762,-0.009461918,-0.0033551736,-0.10478294,0.053339396,-0.10308511,-0.05708027,0.047413785,0.016872795,-0.051926594,0.19664241,-0.016719079,0.16601118,-0.051935703,-0.11853271,-0.16059102,0.050249748,-0.15705517,0.12777077,0.20595899,-0.044048198,0.0119441915,0.3502914,-0.038947765,-0.0034496018,-0.115376554,-0.14671037,-0.11894454,0.05287799,0.08044194,-0.19386768,-0.09960232,-0.06837591,-0.08764332,-0.06647541,0.25691926,-0.083869025,0.026658049,0.0979288,0.08718642,0.1995851,-0.09537142,0.04770885,0.05999637,0.027453035,-0.15334122,0.21849762,0.06246078,0.40728784,0.22546314,-0.100127555,0.05050213,-0.20604642,0.13426113,0.052885614,-0.07079459,0.19203003,0.17285576,-0.028517494,-0.07554126,-0.050087985,-0.010537873,-0.29453367,0.041805655,-0.09479131,0.0047406293,0.059735775,0.2802279,0.029222282,-0.23335879,-0.10246026,0.038061637,-0.22028014,-0.19018283,-0.14331114,-0.02867006,0.04913401,0.36402708,-0.14875428,-0.26357156,-0.071605265,0.10696401,-0.14270987,0.11252064
